%YAML:1.0
my_svm: !!opencv-ml-svm
   svm_type: C_SVC
   kernel: { type:RBF, gamma:1. }
   C: 1.
   term_criteria: { epsilon:2.2204460492503131e-16, iterations:10000000 }
   var_all: 2
   var_count: 2
   class_count: 3
   class_labels: !!opencv-matrix
      rows: 1
      cols: 3
      dt: i
      data: [ 1, 2, 3 ]
   sv_total: 263
   support_vectors:
      - [ 17., 37. ]
      - [ 19., 36. ]
      - [ 26., 34. ]
      - [ 13., 25. ]
      - [ 22., 33. ]
      - [ 28., 39. ]
      - [ 23., 31. ]
      - [ 11., 39. ]
      - [ 24., 38. ]
      - [ 15., 44. ]
      - [ 24., 28. ]
      - [ 17., 29. ]
      - [ 21., 30. ]
      - [ 15., 21. ]
      - [ 28., 36. ]
      - [ 18., 35. ]
      - [ 12., 30. ]
      - [ 11., 31. ]
      - [ 22., 32. ]
      - [ 28., 28. ]
      - [ 17., 26. ]
      - [ 25., 23. ]
      - [ 16., 24. ]
      - [ 13., 44. ]
      - [ 20., 33. ]
      - [ 18., 39. ]
      - [ 29., 28. ]
      - [ 16., 21. ]
      - [ 22., 36. ]
      - [ 21., 29. ]
      - [ 22., 37. ]
      - [ 21., 42. ]
      - [ 16., 23. ]
      - [ 13., 35. ]
      - [ 24., 35. ]
      - [ 11., 34. ]
      - [ 26., 32. ]
      - [ 18., 45. ]
      - [ 26., 25. ]
      - [ 29., 34. ]
      - [ 12., 21. ]
      - [ 25., 37. ]
      - [ 22., 41. ]
      - [ 20., 30. ]
      - [ 21., 31. ]
      - [ 25., 35. ]
      - [ 17., 42. ]
      - [ 27., 26. ]
      - [ 17., 23. ]
      - [ 26., 37. ]
      - [ 18., 36. ]
      - [ 29., 32. ]
      - [ 18., 28. ]
      - [ 23., 35. ]
      - [ 27., 37. ]
      - [ 25., 24. ]
      - [ 21., 37. ]
      - [ 25., 38. ]
      - [ 25., 44. ]
      - [ 19., 41. ]
      - [ 27., 25. ]
      - [ 20., 44. ]
      - [ 29., 25. ]
      - [ 26., 26. ]
      - [ 13., 21. ]
      - [ 15., 28. ]
      - [ 13., 27. ]
      - [ 21., 35. ]
      - [ 19., 25. ]
      - [ 29., 30. ]
      - [ 23., 24. ]
      - [ 27., 41. ]
      - [ 20., 24. ]
      - [ 16., 37. ]
      - [ 14., 39. ]
      - [ 29., 21. ]
      - [ 23., 41. ]
      - [ 14., 22. ]
      - [ 12., 32. ]
      - [ 11., 41. ]
      - [ 16., 29. ]
      - [ 14., 21. ]
      - [ 23., 26. ]
      - [ 28., 38. ]
      - [ 17., 34. ]
      - [ 12., 42. ]
      - [ 26., 39. ]
      - [ 19., 23. ]
      - [ 24., 45. ]
      - [ 23., 39. ]
      - [ 19., 21. ]
      - [ 33., 70. ]
      - [ 30., 79. ]
      - [ 21., 78. ]
      - [ 23., 79. ]
      - [ 22., 82. ]
      - [ 32., 80. ]
      - [ 25., 65. ]
      - [ 23., 77. ]
      - [ 31., 84. ]
      - [ 38., 66. ]
      - [ 32., 76. ]
      - [ 34., 84. ]
      - [ 25., 69. ]
      - [ 24., 76. ]
      - [ 21., 67. ]
      - [ 33., 80. ]
      - [ 30., 71. ]
      - [ 30., 68. ]
      - [ 37., 85. ]
      - [ 39., 79. ]
      - [ 35., 82. ]
      - [ 25., 79. ]
      - [ 33., 79. ]
      - [ 35., 76. ]
      - [ 32., 68. ]
      - [ 36., 75. ]
      - [ 38., 76. ]
      - [ 33., 82. ]
      - [ 21., 69. ]
      - [ 21., 81. ]
      - [ 38., 72. ]
      - [ 30., 76. ]
      - [ 36., 80. ]
      - [ 29., 69. ]
      - [ 30., 78. ]
      - [ 29., 65. ]
      - [ 37., 75. ]
      - [ 37., 76. ]
      - [ 33., 65. ]
      - [ 26., 83. ]
      - [ 26., 82. ]
      - [ 25., 81. ]
      - [ 34., 81. ]
      - [ 35., 72. ]
      - [ 36., 68. ]
      - [ 36., 72. ]
      - [ 25., 78. ]
      - [ 36., 84. ]
      - [ 32., 66. ]
      - [ 25., 80. ]
      - [ 28., 66. ]
      - [ 29., 80. ]
      - [ 30., 74. ]
      - [ 31., 65. ]
      - [ 27., 82. ]
      - [ 26., 68. ]
      - [ 34., 67. ]
      - [ 38., 70. ]
      - [ 32., 71. ]
      - [ 32., 77. ]
      - [ 35., 79. ]
      - [ 28., 85. ]
      - [ 29., 85. ]
      - [ 30., 80. ]
      - [ 38., 70. ]
      - [ 33., 73. ]
      - [ 31., 78. ]
      - [ 21., 65. ]
      - [ 36., 65. ]
      - [ 33., 68. ]
      - [ 24., 69. ]
      - [ 21., 80. ]
      - [ 35., 74. ]
      - [ 31., 82. ]
      - [ 34., 80. ]
      - [ 37., 77. ]
      - [ 23., 76. ]
      - [ 34., 74. ]
      - [ 29., 72. ]
      - [ 33., 66. ]
      - [ 33., 72. ]
      - [ 22., 72. ]
      - [ 25., 68. ]
      - [ 24., 71. ]
      - [ 30., 82. ]
      - [ 33., 83. ]
      - [ 22., 70. ]
      - [ 26., 77. ]
      - [ 38., 65. ]
      - [ 30., 62. ]
      - [ 43., 59. ]
      - [ 47., 65. ]
      - [ 38., 51. ]
      - [ 42., 59. ]
      - [ 41., 54. ]
      - [ 34., 50. ]
      - [ 45., 63. ]
      - [ 35., 59. ]
      - [ 48., 54. ]
      - [ 35., 51. ]
      - [ 40., 54. ]
      - [ 36., 50. ]
      - [ 34., 60. ]
      - [ 40., 53. ]
      - [ 32., 61. ]
      - [ 32., 54. ]
      - [ 31., 56. ]
      - [ 36., 49. ]
      - [ 46., 49. ]
      - [ 40., 52. ]
      - [ 47., 53. ]
      - [ 49., 50. ]
      - [ 36., 54. ]
      - [ 34., 49. ]
      - [ 40., 50. ]
      - [ 37., 50. ]
      - [ 47., 64. ]
      - [ 35., 54. ]
      - [ 46., 59. ]
      - [ 41., 55. ]
      - [ 44., 65. ]
      - [ 36., 61. ]
      - [ 30., 64. ]
      - [ 33., 59. ]
      - [ 40., 60. ]
      - [ 30., 55. ]
      - [ 41., 52. ]
      - [ 43., 51. ]
      - [ 30., 49. ]
      - [ 36., 63. ]
      - [ 38., 57. ]
      - [ 31., 62. ]
      - [ 31., 54. ]
      - [ 48., 61. ]
      - [ 49., 55. ]
      - [ 37., 58. ]
      - [ 36., 64. ]
      - [ 41., 63. ]
      - [ 45., 53. ]
      - [ 45., 56. ]
      - [ 47., 63. ]
      - [ 45., 51. ]
      - [ 30., 61. ]
      - [ 48., 63. ]
      - [ 30., 57. ]
      - [ 30., 58. ]
      - [ 44., 63. ]
      - [ 40., 65. ]
      - [ 40., 62. ]
      - [ 31., 57. ]
      - [ 34., 53. ]
      - [ 32., 57. ]
      - [ 31., 49. ]
      - [ 31., 59. ]
      - [ 32., 59. ]
      - [ 42., 58. ]
      - [ 35., 53. ]
      - [ 38., 50. ]
      - [ 45., 60. ]
      - [ 48., 53. ]
      - [ 32., 56. ]
      - [ 35., 55. ]
      - [ 36., 51. ]
      - [ 47., 60. ]
      - [ 34., 52. ]
      - [ 49., 49. ]
      - [ 49., 61. ]
      - [ 40., 58. ]
      - [ 37., 61. ]
      - [ 45., 55. ]
      - [ 30., 51. ]
      - [ 31., 52. ]
   decision_functions:
      -
         sv_count: 180
         rho: -4.0457946885979389e-02
         alpha: [ 6.2616118332972759e-01, 7.2477586771180103e-01,
             8.5038428361357288e-01, 9.4232447612844983e-01,
             7.5170309816938530e-01, 7.1411636386550126e-01,
             8.7783893085329290e-01, 9.4421249897099357e-01,
             6.3488967514162953e-01, 9.4202247200097367e-01,
             9.5297259023182856e-01, 6.1139305552023637e-01,
             1.3538998326201701e-01, 4.4004663556988505e-01,
             8.6212203362088502e-01, 5.9953370601545730e-01,
             8.4513259008196528e-01, 7.3155246108519223e-01,
             4.6058761850145491e-01, 6.9745603243373766e-01,
             9.4282032949040151e-01, 7.2476694356405480e-01,
             7.0299916113122229e-01, 9.3661935087965631e-01,
             9.3177693630192560e-01, 9.4861618552167015e-01,
             6.8572899487002792e-01, 7.7383538144317021e-01,
             4.6425243049494558e-01, 8.0097087271393697e-01,
             5.1571929652510584e-01, 8.6497487222464986e-01,
             4.2625487791082384e-01, 9.5311886901132081e-01,
             4.5082009567863734e-01, 9.4737901992086992e-01,
             9.4377773036929891e-01, 9.5307348373024758e-01,
             4.0602943551383303e-01, 9.3667677913248659e-01,
             7.8713134688821296e-01, 5.4578638150578862e-01,
             5.6845307779028909e-01, 7.0462481625690132e-01,
             7.0994870802422982e-01, 6.5235958596964849e-01,
             9.5279846233841581e-01, 4.9457723056555225e-01,
             6.8652788367610229e-01, 4.7039213216864662e-01,
             3.7663617674038130e-01, 9.2531961810395436e-01,
             8.6590772458591214e-01, 6.9427402973518371e-01,
             5.6604225936170616e-01, 6.1322287010670518e-01,
             6.8594057207032255e-01, 3.3396239240713560e-01,
             8.4515797558332628e-01, 9.4078898486789864e-01,
             5.3186808757643833e-01, 9.4724594409990392e-01,
             9.4627654909425152e-01, 5.5136632745851044e-01,
             4.3825752666379530e-01, 8.6592100141808848e-01,
             9.3640844465569040e-01, 8.5156337925035919e-01,
             8.3840887346942150e-01, 9.2533300658308715e-01,
             9.2617557313096832e-01, 9.4883601275017515e-01,
             7.3562919195604970e-01, 7.2573654693252310e-01,
             9.5917672089081196e-01, 9.5954194402022930e-01,
             7.2898659650835429e-01, 6.9786376527967575e-01,
             8.3863139041190304e-01, 8.2841748284118311e-01,
             6.1155402470461451e-01, 3.5096598630419823e-01,
             9.3586006178207704e-01, 5.9529435083728299e-01,
             8.7547050042939234e-01, 8.4106988424514972e-01,
             8.7036802027707150e-01, 8.1467210340391483e-01,
             8.4516227683047473e-01, 8.5016709769960563e-01,
             9.4426049377796983e-01, -9.0229287954566906e-01,
             -4.1285181589546149e-01, -1., -9.9621424546855353e-01,
             -9.5058214456927115e-01, -8.3450567648206919e-01, -1.,
             -7.2638336999166886e-01, -1., -7.6024852222576567e-01,
             -7.7760160248497889e-01, -9.2580006960980676e-01,
             -4.6774297587079794e-01, -7.4822835522688791e-01, -1.,
             -1.6622458005705346e-01, -8.9568485323045910e-01,
             -9.0204732984192426e-01, -9.1958591966269720e-01, -1.,
             -9.2200738430351192e-01, -5.5633680072519121e-01,
             -7.7011532071641486e-01, -9.3711181203600991e-01,
             -7.7367902372644226e-01, -5.4767944042127392e-01,
             -7.9511569179970309e-01, -6.7443211562109850e-01,
             -9.0181196050826073e-01, -6.2469769651376583e-01, -1.,
             -9.8789174782548439e-01, -9.0863533172297539e-01,
             -9.1211629643650338e-01, -6.1318802920528903e-01,
             -8.9931058238759032e-01, -6.7275637060239835e-01,
             -8.5838083432600548e-02, -7.9464521473642702e-01,
             -8.0059870884942919e-01, -3.4257617823435116e-01,
             -7.7860254287000819e-01, -5.8980313116167737e-01,
             -7.3162530399290659e-01, -1., -7.4768713100342998e-01,
             -6.8211132150379716e-01, -8.9280422106953083e-01,
             -6.4901911852037297e-01, -5.2749571928816763e-01,
             -9.1804923717240372e-01, -7.7011136149285286e-01, -1.,
             -9.1900425555617671e-01, -8.0026854486138632e-01,
             -7.9883770492399597e-01, -8.8649310607156018e-01,
             -9.9999685565931540e-01, -8.1055055593695990e-01,
             -6.5094243750238567e-01, -8.2963433025972311e-01,
             -7.6311120044016412e-01, -7.5294761608011862e-01,
             -5.5571276045389506e-01, -2.1557428851022364e-02,
             -6.9832006290180970e-01, -6.4414232085071532e-01, -1., -1.,
             -6.0787440136235737e-01, -7.7505485696234122e-01,
             -7.7920969340816626e-01, -6.7139251741215356e-01,
             -7.1853374822646476e-01, -5.0311076999252580e-01,
             -8.7828970373841675e-01, -4.9724742597214183e-01,
             -6.7917355590102180e-01, -9.1235269461964008e-01,
             -3.6680105573741140e-01, -6.3900109803781702e-01, -1.,
             -4.6944366631418438e-01, -1., -7.5344032856561971e-01,
             -6.4513283600012816e-01, -8.8806740911936988e-01,
             -9.3921559991234738e-01, -7.4246023689148877e-01 ]
         index: [ 0, 1, 2, 3, 4, 5, 6, 7, 8, 9, 10, 11, 12, 13, 14, 15,
             16, 17, 18, 19, 20, 21, 22, 23, 24, 25, 26, 27, 28, 29, 30,
             31, 32, 33, 34, 35, 36, 37, 38, 39, 40, 41, 42, 43, 44, 45,
             46, 47, 48, 49, 50, 51, 52, 53, 54, 55, 56, 57, 58, 59, 60,
             61, 62, 63, 64, 65, 66, 67, 68, 69, 70, 71, 72, 73, 74, 75,
             76, 77, 78, 79, 80, 81, 82, 83, 84, 85, 86, 87, 88, 89, 90,
             91, 92, 93, 94, 95, 96, 97, 98, 99, 100, 101, 102, 103, 104,
             105, 106, 107, 108, 109, 110, 111, 112, 113, 114, 115, 116,
             117, 118, 119, 120, 121, 122, 123, 124, 125, 126, 127, 128,
             129, 130, 131, 132, 133, 134, 135, 136, 137, 138, 139, 140,
             141, 142, 143, 144, 145, 146, 147, 148, 149, 150, 151, 152,
             153, 154, 155, 156, 157, 158, 159, 160, 161, 162, 163, 164,
             165, 166, 167, 168, 169, 170, 171, 172, 173, 174, 175, 176,
             177, 178, 179 ]
      -
         sv_count: 174
         rho: -1.0268388834453271e-01
         alpha: [ 5.8555486596089001e-01, 6.7777442512943253e-01,
             7.9523718247539699e-01, 8.8121508806543092e-01,
             7.0295543481362122e-01, 6.6780618610072418e-01,
             8.2091140616165237e-01, 8.8298067333633190e-01,
             5.9371731835977593e-01, 8.8093266879210008e-01,
             8.9117267597176564e-01, 5.7174444568859695e-01,
             1.2660999373972809e-01, 4.1150977666397193e-01,
             8.0621374380688204e-01, 5.6065417054134681e-01,
             7.9032605929523547e-01, 6.8411155896983855e-01,
             4.3071868457365742e-01, 6.5222627089979579e-01,
             8.8167878552324852e-01, 6.7776607970931335e-01,
             6.5740992978487578e-01, 8.7587993804450037e-01,
             8.7135155223190197e-01, 8.8709878246951535e-01,
             6.4125972731397185e-01, 7.2365244783648885e-01,
             4.3414583488694974e-01, 7.4902821269840869e-01,
             4.8227509400112972e-01, 8.0888157689955731e-01,
             3.9861240930486519e-01, 8.9130946862739280e-01,
             4.2158458193434856e-01, 8.8594184659288422e-01,
             8.8257409931503017e-01, 8.9126702656473733e-01,
             3.7969857924470118e-01, 8.7593364209672175e-01,
             7.3608617492029094e-01, 5.1039233982284504e-01,
             5.3158910937356607e-01, 6.5893016178672803e-01,
             6.6390880117416329e-01, 6.1005431203742855e-01,
             8.9100984020678697e-01, 4.6250408307188207e-01,
             6.4200680848126956e-01, 4.3988737921498783e-01,
             3.5221146225396449e-01, 8.6531298869180373e-01,
             8.0975393413584495e-01, 6.4925061988014776e-01,
             5.2933463161386463e-01, 5.7345559748694919e-01,
             6.4145758381235796e-01, 3.1230505679391962e-01,
             7.9034979855637510e-01, 8.7977917283594509e-01,
             4.9737664202301296e-01, 8.8581740068888537e-01,
             8.8491087058496021e-01, 5.1561042837799986e-01,
             4.0983669079792756e-01, 8.0976634997044550e-01,
             8.7568270900988066e-01, 7.9633981420335287e-01,
             7.8403837317761194e-01, 8.6532550893309734e-01,
             8.6611343535706387e-01, 8.8730435398488339e-01,
             6.8792391537613895e-01, 6.7867280466380453e-01,
             8.9697447108960793e-01, 8.9731600963636782e-01,
             6.8171208974631614e-01, 6.5260756242393880e-01,
             7.8424645998001596e-01, 7.7469492047591293e-01,
             5.7189497608187545e-01, 3.2820597401830287e-01,
             8.7516988855948730e-01, 5.5668973595293025e-01,
             8.1869656756046350e-01, 7.8652681840479133e-01,
             8.1392498132803004e-01, 7.6184092372834888e-01,
             7.9035382086926298e-01, 7.9503408098631168e-01,
             8.8302555569811680e-01, -5.4566346771130025e-01,
             -8.0412627472212650e-01, -9.3142818453688314e-01,
             -7.9095089906389016e-01, -5.0261967633788363e-01,
             -4.8353643100720400e-01, -6.8929305559042076e-01,
             -7.8921995708085013e-01, -9.6102141035610755e-01,
             -6.5244952029533687e-01, -6.0092445760406199e-01,
             -6.2004060060584965e-01, -2.2453400148449359e-01,
             -8.5408874987701877e-01, -4.7606301191073086e-01,
             -9.7048122911858758e-01, -8.3618141181873828e-01,
             -4.5906423555286163e-01, -9.1585115177787779e-01, -1.,
             -5.9775096635161507e-01, -7.8679603741644610e-01,
             -8.0609465159713467e-01, -8.3682744781880014e-01,
             -8.2633227362693829e-01, -1., -4.6910539329645268e-01,
             -4.1904934658568227e-01, -1.5704273396485413e-01,
             -8.5317017127354455e-01, -8.3747126537098282e-01, -1.,
             -7.7772258537578820e-01, -1., -7.6389638726067122e-01, -1.,
             -9.3039703388672312e-01, -7.9170478323169702e-01, -1.,
             -7.8872107547133319e-01, -7.8338933924108634e-01,
             -9.6529433360054218e-01, -6.5688464746832453e-01,
             -6.3891518411295911e-01, -6.5192557999768286e-01, -1.,
             -9.6530510163781647e-01, -8.1435821977289480e-01,
             -9.6677591250417838e-01, -1., -8.1384898700782404e-01,
             -6.2011499584786844e-01, -1., -7.8959137952412561e-01,
             -7.9375390530874357e-01, -6.5232315906705529e-01,
             -7.1283654647241901e-01, -7.9376945816494648e-01, -1.,
             -9.5336778191462135e-01, -2.3555151794825441e-01,
             -5.8228922400493743e-01, -6.9019844766184990e-01,
             -8.0585443558316239e-01, -7.8692402010787876e-01,
             -4.8887713502755953e-01, -7.9026052663791968e-01,
             -5.8909571263230798e-01, -6.0568150154053757e-01,
             -9.6557800568206786e-01, -5.6631298894570081e-01,
             -6.1731764243280274e-01, -9.1684140013916504e-01,
             -6.8621730660943581e-01, -8.7545504998402701e-01,
             -7.0821044840808733e-01, -8.0601479407516530e-01,
             -8.5139587907195247e-01, -1., -8.1069129186269673e-01,
             -7.8467469869137796e-01, -9.5339292555426891e-01,
             -9.5602687104185402e-01 ]
         index: [ 0, 1, 2, 3, 4, 5, 6, 7, 8, 9, 10, 11, 12, 13, 14, 15,
             16, 17, 18, 19, 20, 21, 22, 23, 24, 25, 26, 27, 28, 29, 30,
             31, 32, 33, 34, 35, 36, 37, 38, 39, 40, 41, 42, 43, 44, 45,
             46, 47, 48, 49, 50, 51, 52, 53, 54, 55, 56, 57, 58, 59, 60,
             61, 62, 63, 64, 65, 66, 67, 68, 69, 70, 71, 72, 73, 74, 75,
             76, 77, 78, 79, 80, 81, 82, 83, 84, 85, 86, 87, 88, 89, 90,
             180, 181, 182, 183, 184, 185, 186, 187, 188, 189, 190, 191,
             192, 193, 194, 195, 196, 197, 198, 199, 200, 201, 202, 203,
             204, 205, 206, 207, 208, 209, 210, 211, 212, 213, 214, 215,
             216, 217, 218, 219, 220, 221, 222, 223, 224, 225, 226, 227,
             228, 229, 230, 231, 232, 233, 234, 235, 236, 237, 238, 239,
             240, 241, 242, 243, 244, 245, 246, 247, 248, 249, 250, 251,
             252, 253, 254, 255, 256, 257, 258, 259, 260, 261, 262 ]
      -
         sv_count: 171
         rho: -6.2747210753895125e-02
         alpha: [ 8.1278986701724742e-01, 3.7189722794881946e-01,
             9.1372606963744984e-01, 8.9731422064779831e-01,
             8.5628020385665604e-01, 7.5173091403647652e-01,
             9.3713091276591021e-01, 6.5423485132654835e-01,
             9.1200585127653611e-01, 6.8224834911323673e-01,
             7.0046897118101525e-01, 8.3397829633696619e-01,
             4.2133799242670350e-01, 6.7401185542786302e-01,
             9.0547410877944845e-01, 1.4973525501493906e-01,
             8.0685146450512346e-01, 8.1256615472225102e-01,
             8.2837033161236873e-01, 9.3691744828923573e-01,
             8.3055210024284731e-01, 5.0115386348127633e-01,
             6.9372598641118621e-01, 8.4415775439207175e-01,
             6.9725089911854976e-01, 4.9335402362753616e-01,
             7.1624467497795674e-01, 6.0756650111842680e-01,
             8.1231951503777733e-01, 5.6283307029574658e-01,
             9.0795622501359563e-01, 8.8963970813798798e-01,
             8.1850428185384394e-01, 8.2164304299430024e-01,
             5.5237058183575627e-01, 9.4541555175841607e-01,
             6.0602200900917180e-01, 7.7330318181346169e-02,
             7.1337604840027002e-01, 7.2118566766774994e-01,
             3.0859535398769633e-01, 7.0137132703326477e-01,
             5.3129493481469725e-01, 6.5910857482838492e-01,
             9.3114697071345398e-01, 6.7337151170113907e-01,
             6.1445204612341431e-01, 8.0424494885096942e-01,
             5.6410520642456041e-01, 4.7517243796253633e-01,
             8.0900156742218921e-01, 6.9372193902112744e-01,
             9.1505396893925006e-01, 9.6357849494560022e-01,
             7.2088826404731732e-01, 7.1959817134056447e-01,
             7.9743210017963673e-01, 9.2008316788198585e-01,
             7.3015057736163935e-01, 5.8637612210829815e-01,
             7.4734121245070340e-01, 6.8744814850617142e-01,
             6.7817415438409290e-01, 5.0059299442383831e-01,
             6.2905155728835749e-01, 5.8024820865030990e-01,
             9.2066825513744288e-01, 1., 5.4760879579602639e-01,
             6.9800896751577235e-01, 7.0164538185461556e-01,
             6.0479582588889347e-01, 6.4705579041406491e-01,
             4.5320801703209168e-01, 7.9115606561270257e-01,
             4.4795515298583488e-01, 6.1180467909420655e-01,
             8.2175702386517602e-01, 3.3810766542542386e-01,
             5.7561653831925608e-01, 9.1643663412413734e-01,
             4.2289987206721552e-01, 9.1004388787539237e-01,
             6.7870500712807214e-01, 5.8105333322056785e-01,
             7.9963600742751795e-01, 8.4605276759364378e-01,
             6.9324064345525549e-01, -5.2519629520627908e-01,
             -7.7520652603436535e-01, -8.9768952554913228e-01,
             -7.6230964256183986e-01, -4.8406389405843503e-01,
             -4.6602519505892553e-01, -6.6432821263929431e-01,
             -7.6063621506630563e-01, -9.2620875924037149e-01,
             -6.2726178169149294e-01, -5.7917452880511699e-01,
             -5.9747832244949151e-01, -2.1629810030424965e-01,
             -8.2314931731621532e-01, -4.5914258841294470e-01,
             -9.3531848955578334e-01, -8.0589683672449053e-01,
             -4.4243798185721828e-01, -8.8268111645543679e-01, -1.,
             -5.7542430650036303e-01, -7.5754622198981447e-01,
             -7.7689971443561645e-01, -8.0651951365452890e-01,
             -7.9640509354998867e-01, -1., -4.5243649415770754e-01,
             -4.0387234179558557e-01, -1.5135498006406498e-01,
             -8.2227045115634256e-01, -8.0715009017242645e-01, -1.,
             -7.5063975586294462e-01, -1., -7.3623071969025711e-01, -1.,
             -8.9670019173251758e-01, -7.6274940180298367e-01, -1.,
             -7.6015540982754370e-01, -6.9440418288855454e-01,
             -9.3008554904409857e-01, -6.3320097886878501e-01,
             -6.1577514537811251e-01, -6.2831433151585026e-01,
             -9.7391948684823526e-01, -9.3037298127301404e-01, -1.,
             -9.3160470528315054e-01, -1., -7.8465017716684815e-01,
             -5.9765593712701426e-01, -1., -7.6123473680831044e-01,
             -7.6500596205850013e-01, -6.2869742704502152e-01,
             -6.8701947438051036e-01, -7.6435762357468684e-01, -1.,
             -9.1819395909895496e-01, -2.2702041818377253e-01,
             -5.6120080358324687e-01, -6.6520102755684551e-01,
             -7.7666823887516490e-01, -7.5842169164256701e-01,
             -4.7117165511694309e-01, -7.6106552801494787e-01,
             -5.6775980900112599e-01, -5.8296392354215798e-01,
             -9.3060564245608690e-01, -5.4657989097873827e-01,
             -5.9495981825864486e-01, -8.8363551520852057e-01,
             -6.6135880041314576e-01, -8.4374808435201731e-01,
             -6.8255859811563779e-01, -7.7681833479702411e-01,
             -8.2056027643754581e-01, -1., -7.8132804234533104e-01,
             -7.5549067241659418e-01, -9.1886322368585349e-01,
             -9.2140177398128276e-01 ]
         index: [ 91, 92, 93, 94, 95, 96, 97, 98, 99, 100, 101, 102, 103,
             104, 105, 106, 107, 108, 109, 110, 111, 112, 113, 114, 115,
             116, 117, 118, 119, 120, 121, 122, 123, 124, 125, 126, 127,
             128, 129, 130, 131, 132, 133, 134, 135, 136, 137, 138, 139,
             140, 141, 142, 143, 144, 145, 146, 147, 148, 149, 150, 151,
             152, 153, 154, 156, 157, 158, 159, 160, 161, 162, 163, 164,
             165, 166, 167, 168, 169, 170, 171, 172, 173, 174, 175, 176,
             177, 178, 179, 180, 181, 182, 183, 184, 185, 186, 187, 188,
             189, 190, 191, 192, 193, 194, 195, 196, 197, 198, 199, 200,
             201, 202, 203, 204, 205, 206, 207, 208, 209, 210, 211, 212,
             213, 214, 215, 216, 217, 218, 219, 220, 221, 222, 223, 224,
             225, 226, 227, 228, 229, 230, 231, 232, 233, 234, 235, 236,
             237, 238, 239, 240, 241, 242, 243, 244, 245, 246, 247, 248,
             249, 250, 251, 252, 253, 254, 255, 256, 257, 258, 259, 260,
             261, 262 ]
